#pragma once
#include <cstdarg>
namespace Eloquent {
    namespace ML {
        namespace Port {
            class RandomForest {
                public:
                    /**
                    * Predict class for features vector
                    */
                    int predict(float *x) {
                        uint8_t votes[6] = { 0 };
                        // tree #1
                        if (x[5] <= -3.8941770792007446) {
                            if (x[9] <= 5.904333829879761) {
                                if (x[5] <= -12.206773281097412) {
                                    votes[4] += 1;
                                }

                                else {
                                    votes[0] += 1;
                                }
                            }

                            else {
                                if (x[5] <= -21.88568115234375) {
                                    if (x[1] <= 30.922170639038086) {
                                        if (x[15] <= -97.87017440795898) {
                                            votes[4] += 1;
                                        }

                                        else {
                                            votes[0] += 1;
                                        }
                                    }

                                    else {
                                        if (x[14] <= -35.7371883392334) {
                                            votes[4] += 1;
                                        }

                                        else {
                                            votes[0] += 1;
                                        }
                                    }
                                }

                                else {
                                    if (x[11] <= 23.92359447479248) {
                                        votes[0] += 1;
                                    }

                                    else {
                                        if (x[1] <= 13.06736135482788) {
                                            votes[3] += 1;
                                        }

                                        else {
                                            votes[0] += 1;
                                        }
                                    }
                                }
                            }
                        }

                        else {
                            if (x[7] <= -4.943349599838257) {
                                if (x[8] <= 20010.3662109375) {
                                    if (x[8] <= 13526.53173828125) {
                                        votes[1] += 1;
                                    }

                                    else {
                                        votes[2] += 1;
                                    }
                                }

                                else {
                                    if (x[3] <= 5.195249319076538) {
                                        votes[0] += 1;
                                    }

                                    else {
                                        votes[1] += 1;
                                    }
                                }
                            }

                            else {
                                if (x[5] <= -1.65807044506073) {
                                    if (x[8] <= 22367.2724609375) {
                                        votes[1] += 1;
                                    }

                                    else {
                                        votes[0] += 1;
                                    }
                                }

                                else {
                                    if (x[11] <= 3.7028424739837646) {
                                        if (x[3] <= 0.17675499990582466) {
                                            votes[0] += 1;
                                        }

                                        else {
                                            votes[1] += 1;
                                        }
                                    }

                                    else {
                                        if (x[1] <= 1.9275850057601929) {
                                            votes[0] += 1;
                                        }

                                        else {
                                            votes[2] += 1;
                                        }
                                    }
                                }
                            }
                        }

                        // tree #2
                        if (x[8] <= 138296.609375) {
                            if (x[0] <= 22622.2109375) {
                                if (x[9] <= 3.0811649560928345) {
                                    if (x[0] <= 562.5907516479492) {
                                        votes[0] += 1;
                                    }

                                    else {
                                        if (x[5] <= -0.8458385169506073) {
                                            votes[1] += 1;
                                        }

                                        else {
                                            votes[1] += 1;
                                        }
                                    }
                                }

                                else {
                                    if (x[6] <= -3.931651473045349) {
                                        if (x[8] <= 20162.818359375) {
                                            votes[2] += 1;
                                        }

                                        else {
                                            votes[1] += 1;
                                        }
                                    }

                                    else {
                                        if (x[1] <= 3.3593180179595947) {
                                            votes[2] += 1;
                                        }

                                        else {
                                            votes[1] += 1;
                                        }
                                    }
                                }
                            }

                            else {
                                if (x[11] <= 23.941325187683105) {
                                    if (x[15] <= -25.637843132019043) {
                                        votes[4] += 1;
                                    }

                                    else {
                                        if (x[0] <= 22996.6796875) {
                                            votes[0] += 1;
                                        }

                                        else {
                                            votes[0] += 1;
                                        }
                                    }
                                }

                                else {
                                    if (x[5] <= -21.754740715026855) {
                                        votes[0] += 1;
                                    }

                                    else {
                                        if (x[9] <= 12.151042938232422) {
                                            votes[3] += 1;
                                        }

                                        else {
                                            votes[0] += 1;
                                        }
                                    }
                                }
                            }
                        }

                        else {
                            if (x[1] <= 11.99226975440979) {
                                votes[4] += 1;
                            }

                            else {
                                if (x[15] <= -114.61524963378906) {
                                    votes[4] += 1;
                                }

                                else {
                                    votes[0] += 1;
                                }
                            }
                        }

                        // tree #3
                        if (x[8] <= 138296.609375) {
                            if (x[8] <= 23117.5166015625) {
                                if (x[5] <= -2.915827512741089) {
                                    if (x[15] <= -6.087495803833008) {
                                        if (x[4] <= 5.9784815311431885) {
                                            votes[0] += 1;
                                        }

                                        else {
                                            votes[2] += 1;
                                        }
                                    }

                                    else {
                                        if (x[0] <= 22622.2109375) {
                                            votes[1] += 1;
                                        }

                                        else {
                                            votes[0] += 1;
                                        }
                                    }
                                }

                                else {
                                    if (x[7] <= -4.9225475788116455) {
                                        if (x[9] <= 3.0064159631729126) {
                                            votes[1] += 1;
                                        }

                                        else {
                                            votes[2] += 1;
                                        }
                                    }

                                    else {
                                        if (x[1] <= 2.181749939918518) {
                                            votes[1] += 1;
                                        }

                                        else {
                                            votes[1] += 1;
                                        }
                                    }
                                }
                            }

                            else {
                                if (x[5] <= -21.88568115234375) {
                                    votes[0] += 1;
                                }

                                else {
                                    if (x[12] <= 25.057790756225586) {
                                        if (x[0] <= 98634.53515625) {
                                            votes[0] += 1;
                                        }

                                        else {
                                            votes[4] += 1;
                                        }
                                    }

                                    else {
                                        if (x[14] <= -17.19489574432373) {
                                            votes[3] += 1;
                                        }

                                        else {
                                            votes[4] += 1;
                                        }
                                    }
                                }
                            }
                        }

                        else {
                            if (x[8] <= 175396.609375) {
                                if (x[5] <= -33.311763763427734) {
                                    votes[0] += 1;
                                }

                                else {
                                    votes[4] += 1;
                                }
                            }

                            else {
                                votes[4] += 1;
                            }
                        }

                        // tree #4
                        if (x[7] <= -115.94533157348633) {
                            if (x[13] <= -20.846829414367676) {
                                votes[4] += 1;
                            }

                            else {
                                votes[0] += 1;
                            }
                        }

                        else {
                            if (x[7] <= -5.800117492675781) {
                                if (x[6] <= -4.784511089324951) {
                                    if (x[9] <= 9.99968671798706) {
                                        if (x[1] <= 8.731650829315186) {
                                            votes[0] += 1;
                                        }

                                        else {
                                            votes[3] += 1;
                                        }
                                    }

                                    else {
                                        if (x[1] <= 15.789581298828125) {
                                            votes[0] += 1;
                                        }

                                        else {
                                            votes[0] += 1;
                                        }
                                    }
                                }

                                else {
                                    if (x[10] <= 4.9774580001831055) {
                                        if (x[13] <= -2.7072614431381226) {
                                            votes[0] += 1;
                                        }

                                        else {
                                            votes[1] += 1;
                                        }
                                    }

                                    else {
                                        if (x[9] <= 3.19816255569458) {
                                            votes[1] += 1;
                                        }

                                        else {
                                            votes[2] += 1;
                                        }
                                    }
                                }
                            }

                            else {
                                if (x[9] <= 2.3767110109329224) {
                                    if (x[13] <= -0.10685950517654419) {
                                        if (x[0] <= 1023.9570617675781) {
                                            votes[0] += 1;
                                        }

                                        else {
                                            votes[1] += 1;
                                        }
                                    }

                                    else {
                                        if (x[10] <= 2.6103734970092773) {
                                            votes[0] += 1;
                                        }

                                        else {
                                            votes[1] += 1;
                                        }
                                    }
                                }

                                else {
                                    if (x[10] <= 4.316020965576172) {
                                        if (x[13] <= -2.465681552886963) {
                                            votes[1] += 1;
                                        }

                                        else {
                                            votes[2] += 1;
                                        }
                                    }

                                    else {
                                        if (x[6] <= -2.939739465713501) {
                                            votes[1] += 1;
                                        }

                                        else {
                                            votes[1] += 1;
                                        }
                                    }
                                }
                            }
                        }

                        // tree #5
                        if (x[15] <= -100.67023468017578) {
                            if (x[14] <= -127.7265625) {
                                votes[0] += 1;
                            }

                            else {
                                votes[4] += 1;
                            }
                        }

                        else {
                            if (x[6] <= -4.795989990234375) {
                                if (x[6] <= -28.492859840393066) {
                                    if (x[1] <= 12.361939907073975) {
                                        if (x[1] <= 9.541739702224731) {
                                            votes[4] += 1;
                                        }

                                        else {
                                            votes[3] += 1;
                                        }
                                    }

                                    else {
                                        votes[0] += 1;
                                    }
                                }

                                else {
                                    if (x[12] <= 25.531800270080566) {
                                        if (x[12] <= 23.042181968688965) {
                                            votes[0] += 1;
                                        }

                                        else {
                                            votes[0] += 1;
                                        }
                                    }

                                    else {
                                        if (x[11] <= 21.031670570373535) {
                                            votes[4] += 1;
                                        }

                                        else {
                                            votes[3] += 1;
                                        }
                                    }
                                }
                            }

                            else {
                                if (x[1] <= 2.7555699348449707) {
                                    if (x[8] <= 538.710371017456) {
                                        votes[0] += 1;
                                    }

                                    else {
                                        if (x[9] <= 2.3810200691223145) {
                                            votes[1] += 1;
                                        }

                                        else {
                                            votes[1] += 1;
                                        }
                                    }
                                }

                                else {
                                    if (x[2] <= 2.608605980873108) {
                                        votes[1] += 1;
                                    }

                                    else {
                                        if (x[8] <= 19235.16015625) {
                                            votes[2] += 1;
                                        }

                                        else {
                                            votes[1] += 1;
                                        }
                                    }
                                }
                            }
                        }

                        // tree #6
                        if (x[15] <= -101.95071792602539) {
                            if (x[10] <= 15.624029636383057) {
                                votes[0] += 1;
                            }

                            else {
                                votes[4] += 1;
                            }
                        }

                        else {
                            if (x[0] <= 23753.7021484375) {
                                if (x[14] <= -4.149510145187378) {
                                    if (x[2] <= 5.712203025817871) {
                                        votes[2] += 1;
                                    }

                                    else {
                                        votes[1] += 1;
                                    }
                                }

                                else {
                                    if (x[14] <= -0.1629514992237091) {
                                        if (x[1] <= 2.181749939918518) {
                                            votes[1] += 1;
                                        }

                                        else {
                                            votes[1] += 1;
                                        }
                                    }

                                    else {
                                        votes[0] += 1;
                                    }
                                }
                            }

                            else {
                                if (x[1] <= 12.522229671478271) {
                                    if (x[12] <= 25.531800270080566) {
                                        if (x[8] <= 75725.58203125) {
                                            votes[0] += 1;
                                        }

                                        else {
                                            votes[4] += 1;
                                        }
                                    }

                                    else {
                                        if (x[1] <= 7.646770477294922) {
                                            votes[4] += 1;
                                        }

                                        else {
                                            votes[3] += 1;
                                        }
                                    }
                                }

                                else {
                                    votes[0] += 1;
                                }
                            }
                        }

                        // tree #7
                        if (x[7] <= -105.19252014160156) {
                            if (x[13] <= -19.885886192321777) {
                                if (x[7] <= -115.91910552978516) {
                                    votes[4] += 1;
                                }

                                else {
                                    if (x[2] <= 48.209760665893555) {
                                        votes[4] += 1;
                                    }

                                    else {
                                        votes[0] += 1;
                                    }
                                }
                            }

                            else {
                                votes[0] += 1;
                            }
                        }

                        else {
                            if (x[15] <= -5.124409437179565) {
                                if (x[9] <= 10.158219337463379) {
                                    if (x[5] <= -3.6969385147094727) {
                                        if (x[10] <= 14.473538398742676) {
                                            votes[0] += 1;
                                        }

                                        else {
                                            votes[3] += 1;
                                        }
                                    }

                                    else {
                                        if (x[12] <= 5.830383539199829) {
                                            votes[1] += 1;
                                        }

                                        else {
                                            votes[2] += 1;
                                        }
                                    }
                                }

                                else {
                                    votes[0] += 1;
                                }
                            }

                            else {
                                if (x[9] <= 2.3810200691223145) {
                                    if (x[14] <= -0.14378400146961212) {
                                        votes[1] += 1;
                                    }

                                    else {
                                        votes[0] += 1;
                                    }
                                }

                                else {
                                    if (x[6] <= -1.1022074818611145) {
                                        if (x[1] <= 2.685702085494995) {
                                            votes[1] += 1;
                                        }

                                        else {
                                            votes[1] += 1;
                                        }
                                    }

                                    else {
                                        votes[2] += 1;
                                    }
                                }
                            }
                        }

                        // tree #8
                        if (x[8] <= 137702.96875) {
                            if (x[7] <= -5.800117492675781) {
                                if (x[6] <= -4.777950048446655) {
                                    if (x[8] <= 105102.7578125) {
                                        if (x[3] <= 19.22469139099121) {
                                            votes[0] += 1;
                                        }

                                        else {
                                            votes[3] += 1;
                                        }
                                    }

                                    else {
                                        if (x[15] <= -30.362141609191895) {
                                            votes[0] += 1;
                                        }

                                        else {
                                            votes[4] += 1;
                                        }
                                    }
                                }

                                else {
                                    if (x[3] <= 6.112173795700073) {
                                        if (x[6] <= -3.6256719827651978) {
                                            votes[0] += 1;
                                        }

                                        else {
                                            votes[1] += 1;
                                        }
                                    }

                                    else {
                                        if (x[10] <= 15.132989406585693) {
                                            votes[2] += 1;
                                        }

                                        else {
                                            votes[1] += 1;
                                        }
                                    }
                                }
                            }

                            else {
                                if (x[9] <= 2.3495969772338867) {
                                    if (x[9] <= 1.0686089992523193) {
                                        votes[0] += 1;
                                    }

                                    else {
                                        if (x[12] <= 3.4659764766693115) {
                                            votes[1] += 1;
                                        }

                                        else {
                                            votes[1] += 1;
                                        }
                                    }
                                }

                                else {
                                    if (x[14] <= -1.2543864846229553) {
                                        if (x[9] <= 3.0799955129623413) {
                                            votes[1] += 1;
                                        }

                                        else {
                                            votes[1] += 1;
                                        }
                                    }

                                    else {
                                        votes[2] += 1;
                                    }
                                }
                            }
                        }

                        else {
                            if (x[14] <= -42.50640869140625) {
                                votes[4] += 1;
                            }

                            else {
                                if (x[15] <= -98.33813858032227) {
                                    votes[4] += 1;
                                }

                                else {
                                    if (x[4] <= 47.27573108673096) {
                                        votes[4] += 1;
                                    }

                                    else {
                                        votes[0] += 1;
                                    }
                                }
                            }
                        }

                        // tree #9
                        if (x[14] <= -32.5677547454834) {
                            if (x[15] <= -105.51467895507812) {
                                if (x[3] <= 22.7331120967865) {
                                    votes[0] += 1;
                                }

                                else {
                                    votes[4] += 1;
                                }
                            }

                            else {
                                if (x[9] <= 10.90979290008545) {
                                    if (x[7] <= -92.35171508789062) {
                                        votes[3] += 1;
                                    }

                                    else {
                                        if (x[5] <= -22.12742853164673) {
                                            votes[4] += 1;
                                        }

                                        else {
                                            votes[1] += 1;
                                        }
                                    }
                                }

                                else {
                                    votes[0] += 1;
                                }
                            }
                        }

                        else {
                            if (x[7] <= -5.88408637046814) {
                                if (x[1] <= 3.75287401676178) {
                                    if (x[6] <= -11.008497714996338) {
                                        votes[4] += 1;
                                    }

                                    else {
                                        if (x[14] <= -4.023892521858215) {
                                            votes[2] += 1;
                                        }

                                        else {
                                            votes[0] += 1;
                                        }
                                    }
                                }

                                else {
                                    if (x[6] <= -28.882678031921387) {
                                        if (x[4] <= 43.92630958557129) {
                                            votes[4] += 1;
                                        }

                                        else {
                                            votes[0] += 1;
                                        }
                                    }

                                    else {
                                        if (x[11] <= 23.86556625366211) {
                                            votes[0] += 1;
                                        }

                                        else {
                                            votes[3] += 1;
                                        }
                                    }
                                }
                            }

                            else {
                                if (x[10] <= 0.09861299768090248) {
                                    votes[0] += 1;
                                }

                                else {
                                    if (x[9] <= 2.3810200691223145) {
                                        if (x[9] <= 1.0901294946670532) {
                                            votes[0] += 1;
                                        }

                                        else {
                                            votes[1] += 1;
                                        }
                                    }

                                    else {
                                        if (x[0] <= 15999.0849609375) {
                                            votes[2] += 1;
                                        }

                                        else {
                                            votes[1] += 1;
                                        }
                                    }
                                }
                            }
                        }

                        // tree #10
                        if (x[13] <= -21.298477172851562) {
                            if (x[9] <= 8.045932531356812) {
                                votes[4] += 1;
                            }

                            else {
                                if (x[15] <= -115.07247543334961) {
                                    votes[4] += 1;
                                }

                                else {
                                    votes[0] += 1;
                                }
                            }
                        }

                        else {
                            if (x[5] <= -4.086025953292847) {
                                if (x[14] <= -17.25169277191162) {
                                    if (x[11] <= 33.12115478515625) {
                                        if (x[15] <= -25.85514736175537) {
                                            votes[0] += 1;
                                        }

                                        else {
                                            votes[3] += 1;
                                        }
                                    }

                                    else {
                                        if (x[6] <= -28.633151054382324) {
                                            votes[0] += 1;
                                        }

                                        else {
                                            votes[3] += 1;
                                        }
                                    }
                                }

                                else {
                                    if (x[12] <= 25.639925003051758) {
                                        if (x[15] <= -25.637843132019043) {
                                            votes[4] += 1;
                                        }

                                        else {
                                            votes[0] += 1;
                                        }
                                    }

                                    else {
                                        if (x[10] <= 14.410632133483887) {
                                            votes[4] += 1;
                                        }

                                        else {
                                            votes[3] += 1;
                                        }
                                    }
                                }
                            }

                            else {
                                if (x[9] <= 3.09163498878479) {
                                    if (x[10] <= 0.09793050214648247) {
                                        votes[0] += 1;
                                    }

                                    else {
                                        if (x[1] <= 2.178602933883667) {
                                            votes[1] += 1;
                                        }

                                        else {
                                            votes[1] += 1;
                                        }
                                    }
                                }

                                else {
                                    if (x[9] <= 4.163322448730469) {
                                        if (x[10] <= 4.005269527435303) {
                                            votes[1] += 1;
                                        }

                                        else {
                                            votes[2] += 1;
                                        }
                                    }

                                    else {
                                        if (x[0] <= 22351.146484375) {
                                            votes[1] += 1;
                                        }

                                        else {
                                            votes[0] += 1;
                                        }
                                    }
                                }
                            }
                        }

                        // return argmax of votes
                        uint8_t classIdx = 0;
                        float maxVotes = votes[0];

                        for (uint8_t i = 1; i < 6; i++) {
                            if (votes[i] > maxVotes) {
                                classIdx = i;
                                maxVotes = votes[i];
                            }
                        }

                        return classIdx;
                    }

                protected:
                };
            }
        }
    }